## LambdaMART
## No. of trees = 1000
## No. of leaves = 10
## No. of threshold candidates = 256
## Learning rate = 0.1
## Stop early = 100

<ensemble>
	<tree id="1" weight="0.1">
		<split>
			<feature>4 </feature>
			<threshold> 26.26151 </threshold>
			<split pos="left">
				<feature>2 </feature>
				<threshold> 24.31687 </threshold>
				<split pos="left">
					<feature>6 </feature>
					<threshold> 11.467235 </threshold>
					<split pos="left">
						<feature>14 </feature>
						<threshold> 0.59103924 </threshold>
						<split pos="left">
							<feature>1 </feature>
							<threshold> 10.097287 </threshold>
							<split pos="left">
								<output>-0.5613654255867004 </output>
							</split>
							<split pos="right">
								<output>0.7590065598487854 </output>
							</split>
						</split>
						<split pos="right">
							<output>-1.1248325109481812 </output>
						</split>
					</split>
					<split pos="right">
						<feature>1 </feature>
						<threshold> 6.365681 </threshold>
						<split pos="left">
							<output>-0.003924717660993338 </output>
						</split>
						<split pos="right">
							<feature>1 </feature>
							<threshold> 7.6827188 </threshold>
							<split pos="left">
								<output>1.950949788093567 </output>
							</split>
							<split pos="right">
								<feature>6 </feature>
								<threshold> 11.965811 </threshold>
								<split pos="left">
									<output>1.8158633708953857 </output>
								</split>
								<split pos="right">
									<output>1.320216178894043 </output>
								</split>
							</split>
						</split>
					</split>
				</split>
				<split pos="right">
					<feature>14 </feature>
					<threshold> 0.5887402 </threshold>
					<split pos="left">
						<output>-1.8163928985595703 </output>
					</split>
					<split pos="right">
						<output>-1.22943913936615 </output>
					</split>
				</split>
			</split>
			<split pos="right">
				<output>1.7155919075012207 </output>
			</split>
		</split>
	</tree>
	<tree id="2" weight="0.1">
		<split>
			<feature>6 </feature>
			<threshold> 7.6448183 </threshold>
			<split pos="left">
				<feature>4 </feature>
				<threshold> 26.26151 </threshold>
				<split pos="left">
					<output>-1.0618284940719604 </output>
				</split>
				<split pos="right">
					<output>1.3578482866287231 </output>
				</split>
			</split>
			<split pos="right">
				<feature>1 </feature>
				<threshold> 6.5851874 </threshold>
				<split pos="left">
					<output>-0.6377347111701965 </output>
				</split>
				<split pos="right">
					<feature>1 </feature>
					<threshold> 7.6827188 </threshold>
					<split pos="left">
						<output>1.658540964126587 </output>
					</split>
					<split pos="right">
						<feature>8 </feature>
						<threshold> 0.8332361 </threshold>
						<split pos="left">
							<output>-1.4944779872894287 </output>
						</split>
						<split pos="right">
							<feature>8 </feature>
							<threshold> 0.8717866 </threshold>
							<split pos="left">
								<output>1.7410751581192017 </output>
							</split>
							<split pos="right">
								<feature>13 </feature>
								<threshold> 0.038393795 </threshold>
								<split pos="left">
									<output>0.31869032979011536 </output>
								</split>
								<split pos="right">
									<feature>11 </feature>
									<threshold> 0.51916754 </threshold>
									<split pos="left">
										<output>1.809942603111267 </output>
									</split>
									<split pos="right">
										<feature>8 </feature>
										<threshold> 0.93732244 </threshold>
										<split pos="left">
											<output>1.7071441411972046 </output>
										</split>
										<split pos="right">
											<output>0.17542533576488495 </output>
										</split>
									</split>
								</split>
							</split>
						</split>
					</split>
				</split>
			</split>
		</split>
	</tree>
	<tree id="3" weight="0.1">
		<split>
			<feature>6 </feature>
			<threshold> 7.6448183 </threshold>
			<split pos="left">
				<feature>4 </feature>
				<threshold> 26.26151 </threshold>
				<split pos="left">
					<output>-1.0016882419586182 </output>
				</split>
				<split pos="right">
					<output>1.2287652492523193 </output>
				</split>
			</split>
			<split pos="right">
				<feature>1 </feature>
				<threshold> 6.5851874 </threshold>
				<split pos="left">
					<output>-0.5848866105079651 </output>
				</split>
				<split pos="right">
					<feature>1 </feature>
					<threshold> 7.6827188 </threshold>
					<split pos="left">
						<output>1.4789021015167236 </output>
					</split>
					<split pos="right">
						<feature>8 </feature>
						<threshold> 0.8332361 </threshold>
						<split pos="left">
							<output>-1.4417320489883423 </output>
						</split>
						<split pos="right">
							<feature>15 </feature>
							<threshold> 0.69264066 </threshold>
							<split pos="left">
								<feature>14 </feature>
								<threshold> 0.35194018 </threshold>
								<split pos="left">
									<output>1.309770941734314 </output>
								</split>
								<split pos="right">
									<output>1.564949870109558 </output>
								</split>
							</split>
							<split pos="right">
								<feature>13 </feature>
								<threshold> 0.002997825 </threshold>
								<split pos="left">
									<output>1.757636547088623 </output>
								</split>
								<split pos="right">
									<feature>9 </feature>
									<threshold> 0.7701846 </threshold>
									<split pos="left">
										<output>1.4180757999420166 </output>
									</split>
									<split pos="right">
										<output>0.618366539478302 </output>
									</split>
								</split>
							</split>
						</split>
					</split>
				</split>
			</split>
		</split>
	</tree>
	<tree id="4" weight="0.1">
		<split>
			<feature>6 </feature>
			<threshold> 7.6448183 </threshold>
			<split pos="left">
				<output>-0.6778354048728943 </output>
			</split>
			<split pos="right">
				<feature>1 </feature>
				<threshold> 6.5851874 </threshold>
				<split pos="left">
					<output>-0.5039932131767273 </output>
				</split>
				<split pos="right">
					<feature>1 </feature>
					<threshold> 7.6827188 </threshold>
					<split pos="left">
						<output>1.3480874300003052 </output>
					</split>
					<split pos="right">
						<feature>15 </feature>
						<threshold> 0.9976989 </threshold>
						<split pos="left">
							<feature>10 </feature>
							<threshold> 0.4400527 </threshold>
							<split pos="left">
								<output>1.4766032695770264 </output>
							</split>
							<split pos="right">
								<feature>7 </feature>
								<threshold> 0.9844309 </threshold>
								<split pos="left">
									<output>-0.9557705521583557 </output>
								</split>
								<split pos="right">
									<feature>13 </feature>
									<threshold> 0.10033671 </threshold>
									<split pos="left">
										<feature>1 </feature>
										<threshold> 10.097287 </threshold>
										<split pos="left">
											<output>-1.1328315734863281 </output>
										</split>
										<split pos="right">
											<feature>15 </feature>
											<threshold> 0.9566809 </threshold>
											<split pos="left">
												<output>1.2285550832748413 </output>
											</split>
											<split pos="right">
												<output>-1.2496412992477417 </output>
											</split>
										</split>
									</split>
									<split pos="right">
										<output>1.3793282508850098 </output>
									</split>
								</split>
							</split>
						</split>
						<split pos="right">
							<output>1.5977880954742432 </output>
						</split>
					</split>
				</split>
			</split>
		</split>
	</tree>
	<tree id="5" weight="0.1">
		<split>
			<feature>6 </feature>
			<threshold> 7.6448183 </threshold>
			<split pos="left">
				<feature>4 </feature>
				<threshold> 26.26151 </threshold>
				<split pos="left">
					<output>-0.7918959259986877 </output>
				</split>
				<split pos="right">
					<output>1.0687378644943237 </output>
				</split>
			</split>
			<split pos="right">
				<feature>1 </feature>
				<threshold> 6.5851874 </threshold>
				<split pos="left">
					<output>-0.47799041867256165 </output>
				</split>
				<split pos="right">
					<feature>1 </feature>
					<threshold> 7.6827188 </threshold>
					<split pos="left">
						<output>1.2585657835006714 </output>
					</split>
					<split pos="right">
						<feature>8 </feature>
						<threshold> 0.8332361 </threshold>
						<split pos="left">
							<output>-1.3587669134140015 </output>
						</split>
						<split pos="right">
							<feature>8 </feature>
							<threshold> 0.9720179 </threshold>
							<split pos="left">
								<feature>15 </feature>
								<threshold> 0.6432161 </threshold>
								<split pos="left">
									<feature>7 </feature>
									<threshold> 0.9922092 </threshold>
									<split pos="left">
										<output>1.4189960956573486 </output>
									</split>
									<split pos="right">
										<output>1.0454177856445312 </output>
									</split>
								</split>
								<split pos="right">
									<feature>13 </feature>
									<threshold> 0.002997825 </threshold>
									<split pos="left">
										<output>1.4727792739868164 </output>
									</split>
									<split pos="right">
										<output>0.9026150703430176 </output>
									</split>
								</split>
							</split>
							<split pos="right">
								<output>-1.7617886066436768 </output>
							</split>
						</split>
					</split>
				</split>
			</split>
		</split>
	</tree>
	<tree id="6" weight="0.1">
		<split>
			<feature>6 </feature>
			<threshold> 7.6448183 </threshold>
			<split pos="left">
				<feature>4 </feature>
				<threshold> 26.26151 </threshold>
				<split pos="left">
					<output>-0.7065128684043884 </output>
				</split>
				<split pos="right">
					<output>0.9541710019111633 </output>
				</split>
			</split>
			<split pos="right">
				<feature>1 </feature>
				<threshold> 6.5851874 </threshold>
				<split pos="left">
					<output>-0.42237532138824463 </output>
				</split>
				<split pos="right">
					<feature>1 </feature>
					<threshold> 7.6827188 </threshold>
					<split pos="left">
						<output>1.1821668148040771 </output>
					</split>
					<split pos="right">
						<feature>8 </feature>
						<threshold> 0.8332361 </threshold>
						<split pos="left">
							<output>-1.2975538969039917 </output>
						</split>
						<split pos="right">
							<feature>8 </feature>
							<threshold> 0.9720179 </threshold>
							<split pos="left">
								<feature>15 </feature>
								<threshold> 0.6432161 </threshold>
								<split pos="left">
									<feature>13 </feature>
									<threshold> 0.07084008 </threshold>
									<split pos="left">
										<output>0.9653849601745605 </output>
									</split>
									<split pos="right">
										<output>1.3444578647613525 </output>
									</split>
								</split>
								<split pos="right">
									<feature>13 </feature>
									<threshold> 0.002997825 </threshold>
									<split pos="left">
										<output>1.3762452602386475 </output>
									</split>
									<split pos="right">
										<output>0.7791366577148438 </output>
									</split>
								</split>
							</split>
							<split pos="right">
								<output>-1.6223500967025757 </output>
							</split>
						</split>
					</split>
				</split>
			</split>
		</split>
	</tree>
	<tree id="7" weight="0.1">
		<split>
			<feature>6 </feature>
			<threshold> 11.467235 </threshold>
			<split pos="left">
				<feature>4 </feature>
				<threshold> 26.26151 </threshold>
				<split pos="left">
					<feature>10 </feature>
					<threshold> 0.4400527 </threshold>
					<split pos="left">
						<output>1.2046061754226685 </output>
					</split>
					<split pos="right">
						<feature>14 </feature>
						<threshold> 0.59103924 </threshold>
						<split pos="left">
							<feature>12 </feature>
							<threshold> 0.55549073 </threshold>
							<split pos="left">
								<output>-1.157307505607605 </output>
							</split>
							<split pos="right">
								<feature>15 </feature>
								<threshold> 0.69264066 </threshold>
								<split pos="left">
									<output>0.8068820238113403 </output>
								</split>
								<split pos="right">
									<output>-0.1278422772884369 </output>
								</split>
							</split>
						</split>
						<split pos="right">
							<output>-1.133726716041565 </output>
						</split>
					</split>
				</split>
				<split pos="right">
					<output>0.8552226424217224 </output>
				</split>
			</split>
			<split pos="right">
				<feature>1 </feature>
				<threshold> 6.365681 </threshold>
				<split pos="left">
					<output>0.027616318315267563 </output>
				</split>
				<split pos="right">
					<feature>1 </feature>
					<threshold> 7.6827188 </threshold>
					<split pos="left">
						<output>1.1932494640350342 </output>
					</split>
					<split pos="right">
						<feature>6 </feature>
						<threshold> 11.633427 </threshold>
						<split pos="left">
							<output>1.3807777166366577 </output>
						</split>
						<split pos="right">
							<output>0.5650910139083862 </output>
						</split>
					</split>
				</split>
			</split>
		</split>
	</tree>
	<tree id="8" weight="0.1">
		<split>
			<feature>14 </feature>
			<threshold> 0.59333825 </threshold>
			<split pos="left">
				<feature>6 </feature>
				<threshold> 18.114904 </threshold>
				<split pos="left">
					<feature>9 </feature>
					<threshold> 0.9771212 </threshold>
					<split pos="left">
						<feature>9 </feature>
						<threshold> 0.90939647 </threshold>
						<split pos="left">
							<feature>4 </feature>
							<threshold> 22.677856 </threshold>
							<split pos="left">
								<feature>8 </feature>
								<threshold> 0.94503254 </threshold>
								<split pos="left">
									<output>-0.010923950932919979 </output>
								</split>
								<split pos="right">
									<output>-1.7616426944732666 </output>
								</split>
							</split>
							<split pos="right">
								<output>0.7518895864486694 </output>
							</split>
						</split>
						<split pos="right">
							<feature>15 </feature>
							<threshold> 0.9923549 </threshold>
							<split pos="left">
								<feature>10 </feature>
								<threshold> 0.4400527 </threshold>
								<split pos="left">
									<output>1.2113193273544312 </output>
								</split>
								<split pos="right">
									<feature>2 </feature>
									<threshold> 11.154513 </threshold>
									<split pos="left">
										<output>-0.04533059895038605 </output>
									</split>
									<split pos="right">
										<output>1.0528621673583984 </output>
									</split>
								</split>
							</split>
							<split pos="right">
								<output>1.4507654905319214 </output>
							</split>
						</split>
					</split>
					<split pos="right">
						<output>-1.2402409315109253 </output>
					</split>
				</split>
				<split pos="right">
					<output>1.200191855430603 </output>
				</split>
			</split>
			<split pos="right">
				<output>-0.9234818816184998 </output>
			</split>
		</split>
	</tree>
	<tree id="9" weight="0.1">
		<split>
			<feature>6 </feature>
			<threshold> 19.278242 </threshold>
			<split pos="left">
				<feature>10 </feature>
				<threshold> 0.3680297 </threshold>
				<split pos="left">
					<output>-3.6714649200439453 </output>
				</split>
				<split pos="right">
					<feature>14 </feature>
					<threshold> 0.59333825 </threshold>
					<split pos="left">
						<feature>12 </feature>
						<threshold> 0.55549073 </threshold>
						<split pos="left">
							<output>-1.2771222591400146 </output>
						</split>
						<split pos="right">
							<feature>12 </feature>
							<threshold> 0.56991124 </threshold>
							<split pos="left">
								<output>1.2093843221664429 </output>
							</split>
							<split pos="right">
								<feature>1 </feature>
								<threshold> 10.097287 </threshold>
								<split pos="left">
									<output>-0.0845242589712143 </output>
								</split>
								<split pos="right">
									<feature>15 </feature>
									<threshold> 0.9928936 </threshold>
									<split pos="left">
										<feature>6 </feature>
										<threshold> 8.1433935 </threshold>
										<split pos="left">
											<output>0.13687144219875336 </output>
										</split>
										<split pos="right">
											<feature>4 </feature>
											<threshold> 12.536346 </threshold>
											<split pos="left">
												<output>1.0928585529327393 </output>
											</split>
											<split pos="right">
												<output>-0.2963288128376007 </output>
											</split>
										</split>
									</split>
									<split pos="right">
										<output>1.3416653871536255 </output>
									</split>
								</split>
							</split>
						</split>
					</split>
					<split pos="right">
						<output>-0.8675230145454407 </output>
					</split>
				</split>
			</split>
			<split pos="right">
				<output>1.0434502363204956 </output>
			</split>
		</split>
	</tree>
	<tree id="10" weight="0.1">
		<split>
			<feature>6 </feature>
			<threshold> 19.278242 </threshold>
			<split pos="left">
				<feature>4 </feature>
				<threshold> 26.269026 </threshold>
				<split pos="left">
					<feature>7 </feature>
					<threshold> 0.98832005 </threshold>
					<split pos="left">
						<output>-0.6190968751907349 </output>
					</split>
					<split pos="right">
						<feature>13 </feature>
						<threshold> 0.1829274 </threshold>
						<split pos="left">
							<feature>1 </feature>
							<threshold> 10.097287 </threshold>
							<split pos="left">
								<feature>1 </feature>
								<threshold> 7.6827188 </threshold>
								<split pos="left">
									<output>0.06527164578437805 </output>
								</split>
								<split pos="right">
									<output>-0.9453810453414917 </output>
								</split>
							</split>
							<split pos="right">
								<feature>6 </feature>
								<threshold> 8.974354 </threshold>
								<split pos="left">
									<output>-0.1509922593832016 </output>
								</split>
								<split pos="right">
									<output>0.8507696986198425 </output>
								</split>
							</split>
						</split>
						<split pos="right">
							<feature>6 </feature>
							<threshold> 11.467235 </threshold>
							<split pos="left">
								<output>0.3531225323677063 </output>
							</split>
							<split pos="right">
								<output>1.0112673044204712 </output>
							</split>
						</split>
					</split>
				</split>
				<split pos="right">
					<output>0.6416751146316528 </output>
				</split>
			</split>
			<split pos="right">
				<feature>4 </feature>
				<threshold> 0.0 </threshold>
				<split pos="left">
					<output>0.31207966804504395 </output>
				</split>
				<split pos="right">
					<output>1.1806339025497437 </output>
				</split>
			</split>
		</split>
	</tree>
	<tree id="11" weight="0.1">
		<split>
			<feature>6 </feature>
			<threshold> 19.278242 </threshold>
			<split pos="left">
				<feature>14 </feature>
				<threshold> 0.59333825 </threshold>
				<split pos="left">
					<feature>8 </feature>
					<threshold> 0.8409462 </threshold>
					<split pos="left">
						<output>-0.7197549939155579 </output>
					</split>
					<split pos="right">
						<feature>8 </feature>
						<threshold> 0.8717866 </threshold>
						<split pos="left">
							<output>0.9635617136955261 </output>
						</split>
						<split pos="right">
							<feature>14 </feature>
							<threshold> 0.2737728 </threshold>
							<split pos="left">
								<output>-1.3808048963546753 </output>
							</split>
							<split pos="right">
								<feature>14 </feature>
								<threshold> 0.29906225 </threshold>
								<split pos="left">
									<output>1.0893547534942627 </output>
								</split>
								<split pos="right">
									<feature>10 </feature>
									<threshold> 0.4400527 </threshold>
									<split pos="left">
										<output>1.1466827392578125 </output>
									</split>
									<split pos="right">
										<feature>6 </feature>
										<threshold> 11.467235 </threshold>
										<split pos="left">
											<output>0.15909290313720703 </output>
										</split>
										<split pos="right">
											<output>0.8833922147750854 </output>
										</split>
									</split>
								</split>
							</split>
						</split>
					</split>
				</split>
				<split pos="right">
					<output>-0.8095799088478088 </output>
				</split>
			</split>
			<split pos="right">
				<feature>4 </feature>
				<threshold> 0.0 </threshold>
				<split pos="left">
					<output>0.23582254350185394 </output>
				</split>
				<split pos="right">
					<output>1.116760015487671 </output>
				</split>
			</split>
		</split>
	</tree>
	<tree id="12" weight="0.1">
		<split>
			<feature>4 </feature>
			<threshold> 4.6975937 </threshold>
			<split pos="left">
				<feature>10 </feature>
				<threshold> 0.4400527 </threshold>
				<split pos="left">
					<output>1.0264283418655396 </output>
				</split>
				<split pos="right">
					<feature>7 </feature>
					<threshold> 0.98832005 </threshold>
					<split pos="left">
						<output>-0.6663512587547302 </output>
					</split>
					<split pos="right">
						<feature>1 </feature>
						<threshold> 11.1948185 </threshold>
						<split pos="left">
							<feature>13 </feature>
							<threshold> 0.2566691 </threshold>
							<split pos="left">
								<output>-0.48068952560424805 </output>
							</split>
							<split pos="right">
								<output>0.6663974523544312 </output>
							</split>
						</split>
						<split pos="right">
							<output>1.042039155960083 </output>
						</split>
					</split>
				</split>
			</split>
			<split pos="right">
				<feature>15 </feature>
				<threshold> 0.9974267 </threshold>
				<split pos="left">
					<feature>5 </feature>
					<threshold> 10.331697 </threshold>
					<split pos="left">
						<feature>6 </feature>
						<threshold> 22.934446 </threshold>
						<split pos="left">
							<feature>15 </feature>
							<threshold> 0.81841433 </threshold>
							<split pos="left">
								<output>-1.0999336242675781 </output>
							</split>
							<split pos="right">
								<output>0.5105980038642883 </output>
							</split>
						</split>
						<split pos="right">
							<output>1.2232578992843628 </output>
						</split>
					</split>
					<split pos="right">
						<output>-3.793388843536377 </output>
					</split>
				</split>
				<split pos="right">
					<output>1.2788233757019043 </output>
				</split>
			</split>
		</split>
	</tree>
	<tree id="13" weight="0.1">
		<split>
			<feature>6 </feature>
			<threshold> 19.278242 </threshold>
			<split pos="left">
				<feature>14 </feature>
				<threshold> 0.59333825 </threshold>
				<split pos="left">
					<feature>8 </feature>
					<threshold> 0.8409462 </threshold>
					<split pos="left">
						<output>-0.6753059029579163 </output>
					</split>
					<split pos="right">
						<feature>9 </feature>
						<threshold> 0.9733587 </threshold>
						<split pos="left">
							<feature>9 </feature>
							<threshold> 0.9695962 </threshold>
							<split pos="left">
								<feature>15 </feature>
								<threshold> 0.99202514 </threshold>
								<split pos="left">
									<feature>8 </feature>
									<threshold> 0.8717866 </threshold>
									<split pos="left">
										<output>0.843738853931427 </output>
									</split>
									<split pos="right">
										<feature>10 </feature>
										<threshold> 0.4400527 </threshold>
										<split pos="left">
											<output>1.0779993534088135 </output>
										</split>
										<split pos="right">
											<output>0.004678388591855764 </output>
										</split>
									</split>
								</split>
								<split pos="right">
									<output>1.1255993843078613 </output>
								</split>
							</split>
							<split pos="right">
								<output>0.9646921753883362 </output>
							</split>
						</split>
						<split pos="right">
							<output>-0.703098475933075 </output>
						</split>
					</split>
				</split>
				<split pos="right">
					<output>-0.7209241390228271 </output>
				</split>
			</split>
			<split pos="right">
				<feature>9 </feature>
				<threshold> 0.82662183 </threshold>
				<split pos="left">
					<output>-0.551102340221405 </output>
				</split>
				<split pos="right">
					<output>1.0775576829910278 </output>
				</split>
			</split>
		</split>
	</tree>
	<tree id="14" weight="0.1">
		<split>
			<feature>6 </feature>
			<threshold> 19.278242 </threshold>
			<split pos="left">
				<feature>14 </feature>
				<threshold> 0.59333825 </threshold>
				<split pos="left">
					<feature>14 </feature>
					<threshold> 0.48758358 </threshold>
					<split pos="left">
						<feature>2 </feature>
						<threshold> 35.02524 </threshold>
						<split pos="left">
							<feature>4 </feature>
							<threshold> 26.269026 </threshold>
							<split pos="left">
								<output>-0.34974759817123413 </output>
							</split>
							<split pos="right">
								<output>0.8183863759040833 </output>
							</split>
						</split>
						<split pos="right">
							<output>-2.3579275608062744 </output>
						</split>
					</split>
					<split pos="right">
						<feature>11 </feature>
						<threshold> 0.5196936 </threshold>
						<split pos="left">
							<feature>4 </feature>
							<threshold> 10.123412 </threshold>
							<split pos="left">
								<feature>11 </feature>
								<threshold> 0.51864034 </threshold>
								<split pos="left">
									<output>0.5487957000732422 </output>
								</split>
								<split pos="right">
									<output>1.3125817775726318 </output>
								</split>
							</split>
							<split pos="right">
								<output>1.2006721496582031 </output>
							</split>
						</split>
						<split pos="right">
							<output>-0.062242574989795685 </output>
						</split>
					</split>
				</split>
				<split pos="right">
					<output>-0.6848888993263245 </output>
				</split>
			</split>
			<split pos="right">
				<feature>9 </feature>
				<threshold> 0.82662183 </threshold>
				<split pos="left">
					<output>-0.4756847023963928 </output>
				</split>
				<split pos="right">
					<output>0.9906198382377625 </output>
				</split>
			</split>
		</split>
	</tree>
	<tree id="15" weight="0.1">
		<split>
			<feature>4 </feature>
			<threshold> 4.6975937 </threshold>
			<split pos="left">
				<feature>10 </feature>
				<threshold> 0.4400527 </threshold>
				<split pos="left">
					<output>0.9506462216377258 </output>
				</split>
				<split pos="right">
					<feature>7 </feature>
					<threshold> 0.9844309 </threshold>
					<split pos="left">
						<output>-0.6539196968078613 </output>
					</split>
					<split pos="right">
						<feature>1 </feature>
						<threshold> 11.1948185 </threshold>
						<split pos="left">
							<feature>13 </feature>
							<threshold> 0.2566691 </threshold>
							<split pos="left">
								<output>-0.46705198287963867 </output>
							</split>
							<split pos="right">
								<output>0.5916093587875366 </output>
							</split>
						</split>
						<split pos="right">
							<output>1.0391000509262085 </output>
						</split>
					</split>
				</split>
			</split>
			<split pos="right">
				<feature>15 </feature>
				<threshold> 0.9975188 </threshold>
				<split pos="left">
					<feature>5 </feature>
					<threshold> 10.331697 </threshold>
					<split pos="left">
						<feature>6 </feature>
						<threshold> 22.934446 </threshold>
						<split pos="left">
							<feature>15 </feature>
							<threshold> 0.81841433 </threshold>
							<split pos="left">
								<output>-1.208039402961731 </output>
							</split>
							<split pos="right">
								<output>0.47708842158317566 </output>
							</split>
						</split>
						<split pos="right">
							<output>1.1232551336288452 </output>
						</split>
					</split>
					<split pos="right">
						<output>-3.2917978763580322 </output>
					</split>
				</split>
				<split pos="right">
					<output>1.120465636253357 </output>
				</split>
			</split>
		</split>
	</tree>
	<tree id="16" weight="0.1">
		<split>
			<feature>6 </feature>
			<threshold> 19.278242 </threshold>
			<split pos="left">
				<feature>4 </feature>
				<threshold> 34.22333 </threshold>
				<split pos="left">
					<feature>4 </feature>
					<threshold> 26.269026 </threshold>
					<split pos="left">
						<feature>7 </feature>
						<threshold> 0.98832005 </threshold>
						<split pos="left">
							<output>-0.5236158967018127 </output>
						</split>
						<split pos="right">
							<feature>13 </feature>
							<threshold> 0.17112872 </threshold>
							<split pos="left">
								<feature>11 </feature>
								<threshold> 0.5202186 </threshold>
								<split pos="left">
									<feature>4 </feature>
									<threshold> 12.536346 </threshold>
									<split pos="left">
										<feature>4 </feature>
										<threshold> 12.383827 </threshold>
										<split pos="left">
											<feature>4 </feature>
											<threshold> 10.7363405 </threshold>
											<split pos="left">
												<output>-0.3153643012046814 </output>
											</split>
											<split pos="right">
												<output>0.6400074362754822 </output>
											</split>
										</split>
										<split pos="right">
											<output>1.223854899406433 </output>
										</split>
									</split>
									<split pos="right">
										<output>-1.164968729019165 </output>
									</split>
								</split>
								<split pos="right">
									<output>0.593619167804718 </output>
								</split>
							</split>
							<split pos="right">
								<output>0.776366651058197 </output>
							</split>
						</split>
					</split>
					<split pos="right">
						<output>0.6940078735351562 </output>
					</split>
				</split>
				<split pos="right">
					<output>-2.119884729385376 </output>
				</split>
			</split>
			<split pos="right">
				<output>0.6769415140151978 </output>
			</split>
		</split>
	</tree>
	<tree id="17" weight="0.1">
		<split>
			<feature>4 </feature>
			<threshold> 4.6975937 </threshold>
			<split pos="left">
				<feature>10 </feature>
				<threshold> 0.4400527 </threshold>
				<split pos="left">
					<output>0.9520606398582458 </output>
				</split>
				<split pos="right">
					<feature>7 </feature>
					<threshold> 0.9844309 </threshold>
					<split pos="left">
						<output>-0.6348276734352112 </output>
					</split>
					<split pos="right">
						<feature>1 </feature>
						<threshold> 11.1948185 </threshold>
						<split pos="left">
							<feature>13 </feature>
							<threshold> 0.2566691 </threshold>
							<split pos="left">
								<output>-0.43679380416870117 </output>
							</split>
							<split pos="right">
								<output>0.5330563187599182 </output>
							</split>
						</split>
						<split pos="right">
							<output>0.9899673461914062 </output>
						</split>
					</split>
				</split>
			</split>
			<split pos="right">
				<feature>15 </feature>
				<threshold> 0.81841433 </threshold>
				<split pos="left">
					<output>-0.9463559985160828 </output>
				</split>
				<split pos="right">
					<feature>14 </feature>
					<threshold> 0.12203694 </threshold>
					<split pos="left">
						<feature>8 </feature>
						<threshold> 0.86793154 </threshold>
						<split pos="left">
							<output>1.5112587213516235 </output>
						</split>
						<split pos="right">
							<output>-1.2937220335006714 </output>
						</split>
					</split>
					<split pos="right">
						<feature>14 </feature>
						<threshold> 0.57494617 </threshold>
						<split pos="left">
							<output>0.3536718785762787 </output>
						</split>
						<split pos="right">
							<output>1.0391840934753418 </output>
						</split>
					</split>
				</split>
			</split>
		</split>
	</tree>
	<tree id="18" weight="0.1">
		<split>
			<feature>4 </feature>
			<threshold> 4.6975937 </threshold>
			<split pos="left">
				<feature>10 </feature>
				<threshold> 0.5069606 </threshold>
				<split pos="left">
					<feature>10 </feature>
					<threshold> 0.49763596 </threshold>
					<split pos="left">
						<output>-0.4710877537727356 </output>
					</split>
					<split pos="right">
						<output>0.6964436173439026 </output>
					</split>
				</split>
				<split pos="right">
					<feature>9 </feature>
					<threshold> 0.9507838 </threshold>
					<split pos="left">
						<output>-0.7776162028312683 </output>
					</split>
					<split pos="right">
						<output>0.23430541157722473 </output>
					</split>
				</split>
			</split>
			<split pos="right">
				<feature>4 </feature>
				<threshold> 4.964125 </threshold>
				<split pos="left">
					<output>1.1565675735473633 </output>
				</split>
				<split pos="right">
					<feature>5 </feature>
					<threshold> 10.331697 </threshold>
					<split pos="left">
						<feature>15 </feature>
						<threshold> 0.81841433 </threshold>
						<split pos="left">
							<output>-0.8232768774032593 </output>
						</split>
						<split pos="right">
							<feature>14 </feature>
							<threshold> 0.12203694 </threshold>
							<split pos="left">
								<feature>13 </feature>
								<threshold> 0.008897154 </threshold>
								<split pos="left">
									<output>-1.2393392324447632 </output>
								</split>
								<split pos="right">
									<output>1.4223830699920654 </output>
								</split>
							</split>
							<split pos="right">
								<output>0.4214172661304474 </output>
							</split>
						</split>
					</split>
					<split pos="right">
						<output>-3.1448371410369873 </output>
					</split>
				</split>
			</split>
		</split>
	</tree>
	<tree id="19" weight="0.1">
		<split>
			<feature>14 </feature>
			<threshold> 0.59103924 </threshold>
			<split pos="left">
				<feature>14 </feature>
				<threshold> 0.48758358 </threshold>
				<split pos="left">
					<feature>4 </feature>
					<threshold> 34.22333 </threshold>
					<split pos="left">
						<feature>4 </feature>
						<threshold> 26.269026 </threshold>
						<split pos="left">
							<feature>10 </feature>
							<threshold> 0.520316 </threshold>
							<split pos="left">
								<output>-0.597259521484375 </output>
							</split>
							<split pos="right">
								<feature>10 </feature>
								<threshold> 0.52085686 </threshold>
								<split pos="left">
									<output>1.2123996019363403 </output>
								</split>
								<split pos="right">
									<output>-0.25209641456604004 </output>
								</split>
							</split>
						</split>
						<split pos="right">
							<output>0.6241903901100159 </output>
						</split>
					</split>
					<split pos="right">
						<output>-2.0714974403381348 </output>
					</split>
				</split>
				<split pos="right">
					<feature>4 </feature>
					<threshold> 4.6975937 </threshold>
					<split pos="left">
						<feature>15 </feature>
						<threshold> 0.69264066 </threshold>
						<split pos="left">
							<feature>1 </feature>
							<threshold> 8.78025 </threshold>
							<split pos="left">
								<output>1.5589109659194946 </output>
							</split>
							<split pos="right">
								<output>0.5996193885803223 </output>
							</split>
						</split>
						<split pos="right">
							<output>0.08073157072067261 </output>
						</split>
					</split>
					<split pos="right">
						<output>0.864983856678009 </output>
					</split>
				</split>
			</split>
			<split pos="right">
				<output>-0.5592998266220093 </output>
			</split>
		</split>
	</tree>
	<tree id="20" weight="0.1">
		<split>
			<feature>12 </feature>
			<threshold> 0.55549073 </threshold>
			<split pos="left">
				<output>-1.0633903741836548 </output>
			</split>
			<split pos="right">
				<feature>12 </feature>
				<threshold> 0.6456189 </threshold>
				<split pos="left">
					<output>1.1478691101074219 </output>
				</split>
				<split pos="right">
					<feature>7 </feature>
					<threshold> 0.9727635 </threshold>
					<split pos="left">
						<output>-0.8411777019500732 </output>
					</split>
					<split pos="right">
						<feature>9 </feature>
						<threshold> 0.7250348 </threshold>
						<split pos="left">
							<output>-0.6410190463066101 </output>
						</split>
						<split pos="right">
							<feature>1 </feature>
							<threshold> 10.097287 </threshold>
							<split pos="left">
								<feature>14 </feature>
								<threshold> 0.12203694 </threshold>
								<split pos="left">
									<output>0.9347661733627319 </output>
								</split>
								<split pos="right">
									<feature>10 </feature>
									<threshold> 0.52672607 </threshold>
									<split pos="left">
										<feature>6 </feature>
										<threshold> 11.467235 </threshold>
										<split pos="left">
											<output>-0.3321203589439392 </output>
										</split>
										<split pos="right">
											<output>0.45039018988609314 </output>
										</split>
									</split>
									<split pos="right">
										<output>1.0869247913360596 </output>
									</split>
								</split>
							</split>
							<split pos="right">
								<feature>9 </feature>
								<threshold> 0.86800915 </threshold>
								<split pos="left">
									<output>1.1115012168884277 </output>
								</split>
								<split pos="right">
									<output>0.5722571611404419 </output>
								</split>
							</split>
						</split>
					</split>
				</split>
			</split>
		</split>
	</tree>
	<tree id="21" weight="0.1">
		<split>
			<feature>12 </feature>
			<threshold> 0.55549073 </threshold>
			<split pos="left">
				<output>-1.0154659748077393 </output>
			</split>
			<split pos="right">
				<feature>12 </feature>
				<threshold> 0.6456189 </threshold>
				<split pos="left">
					<feature>12 </feature>
					<threshold> 0.63480353 </threshold>
					<split pos="left">
						<output>0.4721185564994812 </output>
					</split>
					<split pos="right">
						<output>1.5501972436904907 </output>
					</split>
				</split>
				<split pos="right">
					<feature>7 </feature>
					<threshold> 0.9727635 </threshold>
					<split pos="left">
						<output>-0.7995973825454712 </output>
					</split>
					<split pos="right">
						<feature>9 </feature>
						<threshold> 0.7250348 </threshold>
						<split pos="left">
							<output>-0.5921200513839722 </output>
						</split>
						<split pos="right">
							<feature>1 </feature>
							<threshold> 10.097287 </threshold>
							<split pos="left">
								<feature>4 </feature>
								<threshold> 3.9426136 </threshold>
								<split pos="left">
									<output>-0.21325266361236572 </output>
								</split>
								<split pos="right">
									<feature>10 </feature>
									<threshold> 0.520316 </threshold>
									<split pos="left">
										<output>0.13838402926921844 </output>
									</split>
									<split pos="right">
										<output>0.9977801442146301 </output>
									</split>
								</split>
							</split>
							<split pos="right">
								<feature>9 </feature>
								<threshold> 0.86800915 </threshold>
								<split pos="left">
									<output>1.0842912197113037 </output>
								</split>
								<split pos="right">
									<output>0.5343089699745178 </output>
								</split>
							</split>
						</split>
					</split>
				</split>
			</split>
		</split>
	</tree>
	<tree id="22" weight="0.1">
		<split>
			<feature>6 </feature>
			<threshold> 23.266829 </threshold>
			<split pos="left">
				<feature>12 </feature>
				<threshold> 0.51943946 </threshold>
				<split pos="left">
					<output>-0.9945991635322571 </output>
				</split>
				<split pos="right">
					<feature>12 </feature>
					<threshold> 0.6456189 </threshold>
					<split pos="left">
						<feature>12 </feature>
						<threshold> 0.63480353 </threshold>
						<split pos="left">
							<output>0.2639428973197937 </output>
						</split>
						<split pos="right">
							<output>1.3107924461364746 </output>
						</split>
					</split>
					<split pos="right">
						<feature>11 </feature>
						<threshold> 0.5202186 </threshold>
						<split pos="left">
							<feature>14 </feature>
							<threshold> 0.2737728 </threshold>
							<split pos="left">
								<output>-0.6807301044464111 </output>
							</split>
							<split pos="right">
								<feature>6 </feature>
								<threshold> 11.467235 </threshold>
								<split pos="left">
									<output>-0.30662772059440613 </output>
								</split>
								<split pos="right">
									<feature>6 </feature>
									<threshold> 11.633427 </threshold>
									<split pos="left">
										<output>1.2379199266433716 </output>
									</split>
									<split pos="right">
										<output>0.22107556462287903 </output>
									</split>
								</split>
							</split>
						</split>
						<split pos="right">
							<feature>14 </feature>
							<threshold> 0.15652233 </threshold>
							<split pos="left">
								<output>1.0807698965072632 </output>
							</split>
							<split pos="right">
								<output>0.17772522568702698 </output>
							</split>
						</split>
					</split>
				</split>
			</split>
			<split pos="right">
				<output>0.6716316938400269 </output>
			</split>
		</split>
	</tree>
	<tree id="23" weight="0.1">
		<split>
			<feature>6 </feature>
			<threshold> 36.72831 </threshold>
			<split pos="left">
				<feature>6 </feature>
				<threshold> 23.266829 </threshold>
				<split pos="left">
					<feature>15 </feature>
					<threshold> 0.47407407 </threshold>
					<split pos="left">
						<output>-1.0147767066955566 </output>
					</split>
					<split pos="right">
						<feature>14 </feature>
						<threshold> 0.59333825 </threshold>
						<split pos="left">
							<feature>13 </feature>
							<threshold> 0.1829274 </threshold>
							<split pos="left">
								<feature>15 </feature>
								<threshold> 0.9922209 </threshold>
								<split pos="left">
									<feature>4 </feature>
									<threshold> 5.9897885 </threshold>
									<split pos="left">
										<output>-0.6433449387550354 </output>
									</split>
									<split pos="right">
										<feature>4 </feature>
										<threshold> 7.7730484 </threshold>
										<split pos="left">
											<output>1.2260417938232422 </output>
										</split>
										<split pos="right">
											<output>-0.11841411143541336 </output>
										</split>
									</split>
								</split>
								<split pos="right">
									<output>0.6468139290809631 </output>
								</split>
							</split>
							<split pos="right">
								<feature>15 </feature>
								<threshold> 0.69264066 </threshold>
								<split pos="left">
									<output>1.0569401979446411 </output>
								</split>
								<split pos="right">
									<output>0.05496041104197502 </output>
								</split>
							</split>
						</split>
						<split pos="right">
							<output>-0.4232660233974457 </output>
						</split>
					</split>
				</split>
				<split pos="right">
					<output>0.7852076888084412 </output>
				</split>
			</split>
			<split pos="right">
				<output>-2.182610511779785 </output>
			</split>
		</split>
	</tree>
	<tree id="24" weight="0.1">
		<split>
			<feature>8 </feature>
			<threshold> 0.91419214 </threshold>
			<split pos="left">
				<feature>2 </feature>
				<threshold> 33.01742 </threshold>
				<split pos="left">
					<feature>4 </feature>
					<threshold> 26.269026 </threshold>
					<split pos="left">
						<output>-0.3536742329597473 </output>
					</split>
					<split pos="right">
						<output>0.7958953976631165 </output>
					</split>
				</split>
				<split pos="right">
					<output>-1.4457359313964844 </output>
				</split>
			</split>
			<split pos="right">
				<feature>7 </feature>
				<threshold> 0.47884226 </threshold>
				<split pos="left">
					<feature>7 </feature>
					<threshold> 0.47106397 </threshold>
					<split pos="left">
						<output>-0.8791284561157227 </output>
					</split>
					<split pos="right">
						<output>1.525802731513977 </output>
					</split>
				</split>
				<split pos="right">
					<feature>6 </feature>
					<threshold> 19.278242 </threshold>
					<split pos="left">
						<feature>14 </feature>
						<threshold> 0.2737728 </threshold>
						<split pos="left">
							<output>-1.184164047241211 </output>
						</split>
						<split pos="right">
							<feature>14 </feature>
							<threshold> 0.29906225 </threshold>
							<split pos="left">
								<output>0.9064502120018005 </output>
							</split>
							<split pos="right">
								<feature>7 </feature>
								<threshold> 0.98832005 </threshold>
								<split pos="left">
									<output>-0.3242076337337494 </output>
								</split>
								<split pos="right">
									<output>0.36731603741645813 </output>
								</split>
							</split>
						</split>
					</split>
					<split pos="right">
						<output>0.6866174340248108 </output>
					</split>
				</split>
			</split>
		</split>
	</tree>
	<tree id="25" weight="0.1">
		<split>
			<feature>2 </feature>
			<threshold> 33.01742 </threshold>
			<split pos="left">
				<feature>6 </feature>
				<threshold> 23.266829 </threshold>
				<split pos="left">
					<feature>9 </feature>
					<threshold> 0.91692144 </threshold>
					<split pos="left">
						<feature>10 </feature>
						<threshold> 0.5120551 </threshold>
						<split pos="left">
							<output>0.1355038583278656 </output>
						</split>
						<split pos="right">
							<output>-0.6822196841239929 </output>
						</split>
					</split>
					<split pos="right">
						<feature>7 </feature>
						<threshold> 0.47884226 </threshold>
						<split pos="left">
							<feature>7 </feature>
							<threshold> 0.47106397 </threshold>
							<split pos="left">
								<output>-0.7299280166625977 </output>
							</split>
							<split pos="right">
								<output>1.429175853729248 </output>
							</split>
						</split>
						<split pos="right">
							<feature>8 </feature>
							<threshold> 0.8717866 </threshold>
							<split pos="left">
								<output>1.0190391540527344 </output>
							</split>
							<split pos="right">
								<feature>9 </feature>
								<threshold> 0.9206839 </threshold>
								<split pos="left">
									<output>0.8965272903442383 </output>
								</split>
								<split pos="right">
									<feature>4 </feature>
									<threshold> 26.26151 </threshold>
									<split pos="left">
										<output>-0.14730598032474518 </output>
									</split>
									<split pos="right">
										<output>1.0763722658157349 </output>
									</split>
								</split>
							</split>
						</split>
					</split>
				</split>
				<split pos="right">
					<output>0.6636604070663452 </output>
				</split>
			</split>
			<split pos="right">
				<output>-1.3490670919418335 </output>
			</split>
		</split>
	</tree>
	<tree id="26" weight="0.1">
		<split>
			<feature>8 </feature>
			<threshold> 0.91419214 </threshold>
			<split pos="left">
				<feature>10 </feature>
				<threshold> 0.5069606 </threshold>
				<split pos="left">
					<output>0.2069140374660492 </output>
				</split>
				<split pos="right">
					<output>-0.7862651348114014 </output>
				</split>
			</split>
			<split pos="right">
				<feature>14 </feature>
				<threshold> 0.2737728 </threshold>
				<split pos="left">
					<output>-1.1386744976043701 </output>
				</split>
				<split pos="right">
					<feature>14 </feature>
					<threshold> 0.59103924 </threshold>
					<split pos="left">
						<feature>7 </feature>
						<threshold> 0.47884226 </threshold>
						<split pos="left">
							<feature>7 </feature>
							<threshold> 0.40494853 </threshold>
							<split pos="left">
								<output>-0.9981138110160828 </output>
							</split>
							<split pos="right">
								<output>1.3578747510910034 </output>
							</split>
						</split>
						<split pos="right">
							<feature>6 </feature>
							<threshold> 18.114904 </threshold>
							<split pos="left">
								<feature>9 </feature>
								<threshold> 0.9771212 </threshold>
								<split pos="left">
									<feature>14 </feature>
									<threshold> 0.29906225 </threshold>
									<split pos="left">
										<output>1.0945748090744019 </output>
									</split>
									<split pos="right">
										<output>0.41196539998054504 </output>
									</split>
								</split>
								<split pos="right">
									<output>-0.6576310396194458 </output>
								</split>
							</split>
							<split pos="right">
								<output>0.7777706384658813 </output>
							</split>
						</split>
					</split>
					<split pos="right">
						<output>-0.222194641828537 </output>
					</split>
				</split>
			</split>
		</split>
	</tree>
	<tree id="27" weight="0.1">
		<split>
			<feature>9 </feature>
			<threshold> 0.82662183 </threshold>
			<split pos="left">
				<feature>14 </feature>
				<threshold> 0.3358469 </threshold>
				<split pos="left">
					<output>-1.2623859643936157 </output>
				</split>
				<split pos="right">
					<feature>11 </feature>
					<threshold> 0.5196936 </threshold>
					<split pos="left">
						<output>0.46866437792778015 </output>
					</split>
					<split pos="right">
						<output>-0.7511077523231506 </output>
					</split>
				</split>
			</split>
			<split pos="right">
				<feature>6 </feature>
				<threshold> 23.266829 </threshold>
				<split pos="left">
					<feature>8 </feature>
					<threshold> 0.96045274 </threshold>
					<split pos="left">
						<feature>8 </feature>
						<threshold> 0.92961234 </threshold>
						<split pos="left">
							<output>-0.1107378900051117 </output>
						</split>
						<split pos="right">
							<feature>7 </feature>
							<threshold> 0.47884226 </threshold>
							<split pos="left">
								<feature>1 </feature>
								<threshold> 11.414325 </threshold>
								<split pos="left">
									<output>2.8074629306793213 </output>
								</split>
								<split pos="right">
									<output>1.3013824224472046 </output>
								</split>
							</split>
							<split pos="right">
								<feature>6 </feature>
								<threshold> 11.467235 </threshold>
								<split pos="left">
									<output>0.12046913802623749 </output>
								</split>
								<split pos="right">
									<output>0.771917462348938 </output>
								</split>
							</split>
						</split>
					</split>
					<split pos="right">
						<output>-0.36269083619117737 </output>
					</split>
				</split>
				<split pos="right">
					<output>0.7346553206443787 </output>
				</split>
			</split>
		</split>
	</tree>
	<tree id="28" weight="0.1">
		<split>
			<feature>9 </feature>
			<threshold> 0.82662183 </threshold>
			<split pos="left">
				<feature>11 </feature>
				<threshold> 0.5196936 </threshold>
				<split pos="left">
					<output>0.1653023213148117 </output>
				</split>
				<split pos="right">
					<output>-0.7747000455856323 </output>
				</split>
			</split>
			<split pos="right">
				<feature>6 </feature>
				<threshold> 23.266829 </threshold>
				<split pos="left">
					<feature>8 </feature>
					<threshold> 0.96045274 </threshold>
					<split pos="left">
						<feature>8 </feature>
						<threshold> 0.9257573 </threshold>
						<split pos="left">
							<feature>8 </feature>
							<threshold> 0.87564164 </threshold>
							<split pos="left">
								<output>0.4819880425930023 </output>
							</split>
							<split pos="right">
								<output>-0.9902568459510803 </output>
							</split>
						</split>
						<split pos="right">
							<feature>7 </feature>
							<threshold> 0.47884226 </threshold>
							<split pos="left">
								<feature>1 </feature>
								<threshold> 11.414325 </threshold>
								<split pos="left">
									<output>1.940762996673584 </output>
								</split>
								<split pos="right">
									<output>1.2631980180740356 </output>
								</split>
							</split>
							<split pos="right">
								<feature>6 </feature>
								<threshold> 11.467235 </threshold>
								<split pos="left">
									<output>0.10752516984939575 </output>
								</split>
								<split pos="right">
									<output>0.7535797357559204 </output>
								</split>
							</split>
						</split>
					</split>
					<split pos="right">
						<output>-0.34438955783843994 </output>
					</split>
				</split>
				<split pos="right">
					<output>0.6895800828933716 </output>
				</split>
			</split>
		</split>
	</tree>
	<tree id="29" weight="0.1">
		<split>
			<feature>9 </feature>
			<threshold> 0.91692144 </threshold>
			<split pos="left">
				<feature>10 </feature>
				<threshold> 0.5086705 </threshold>
				<split pos="left">
					<feature>10 </feature>
					<threshold> 0.4970414 </threshold>
					<split pos="left">
						<output>-0.5205139517784119 </output>
					</split>
					<split pos="right">
						<output>0.5907132625579834 </output>
					</split>
				</split>
				<split pos="right">
					<output>-0.5146790146827698 </output>
				</split>
			</split>
			<split pos="right">
				<feature>8 </feature>
				<threshold> 0.8717866 </threshold>
				<split pos="left">
					<output>0.8609886765480042 </output>
				</split>
				<split pos="right">
					<feature>14 </feature>
					<threshold> 0.42321044 </threshold>
					<split pos="left">
						<output>-0.4790108799934387 </output>
					</split>
					<split pos="right">
						<feature>14 </feature>
						<threshold> 0.44160277 </threshold>
						<split pos="left">
							<output>1.212705373764038 </output>
						</split>
						<split pos="right">
							<feature>8 </feature>
							<threshold> 0.96045274 </threshold>
							<split pos="left">
								<feature>7 </feature>
								<threshold> 0.47884226 </threshold>
								<split pos="left">
									<feature>1 </feature>
									<threshold> 18.21901 </threshold>
									<split pos="left">
										<output>0.05091384798288345 </output>
									</split>
									<split pos="right">
										<output>1.2262810468673706 </output>
									</split>
								</split>
								<split pos="right">
									<output>0.5683944225311279 </output>
								</split>
							</split>
							<split pos="right">
								<output>-0.43087077140808105 </output>
							</split>
						</split>
					</split>
				</split>
			</split>
		</split>
	</tree>
	<tree id="30" weight="0.1">
		<split>
			<feature>9 </feature>
			<threshold> 0.9507838 </threshold>
			<split pos="left">
				<feature>15 </feature>
				<threshold> 0.9044415 </threshold>
				<split pos="left">
					<output>-0.43141207098960876 </output>
				</split>
				<split pos="right">
					<feature>12 </feature>
					<threshold> 0.7645881 </threshold>
					<split pos="left">
						<output>1.1120930910110474 </output>
					</split>
					<split pos="right">
						<feature>11 </feature>
						<threshold> 0.5196936 </threshold>
						<split pos="left">
							<output>0.5342539548873901 </output>
						</split>
						<split pos="right">
							<feature>6 </feature>
							<threshold> 10.968658 </threshold>
							<split pos="left">
								<output>-0.7402136325836182 </output>
							</split>
							<split pos="right">
								<output>0.20648203790187836 </output>
							</split>
						</split>
					</split>
				</split>
			</split>
			<split pos="right">
				<feature>9 </feature>
				<threshold> 0.9545463 </threshold>
				<split pos="left">
					<feature>1 </feature>
					<threshold> 16.682472 </threshold>
					<split pos="left">
						<output>-1.0404289960861206 </output>
					</split>
					<split pos="right">
						<output>1.1934913396835327 </output>
					</split>
				</split>
				<split pos="right">
					<feature>6 </feature>
					<threshold> 20.109198 </threshold>
					<split pos="left">
						<feature>9 </feature>
						<threshold> 0.9733587 </threshold>
						<split pos="left">
							<output>0.49520623683929443 </output>
						</split>
						<split pos="right">
							<output>-0.3356444239616394 </output>
						</split>
					</split>
					<split pos="right">
						<output>1.120885968208313 </output>
					</split>
				</split>
			</split>
		</split>
	</tree>
	<tree id="31" weight="0.1">
		<split>
			<feature>15 </feature>
			<threshold> 0.47407407 </threshold>
			<split pos="left">
				<output>-0.9174947142601013 </output>
			</split>
			<split pos="right">
				<feature>9 </feature>
				<threshold> 0.7175098 </threshold>
				<split pos="left">
					<output>-0.37568509578704834 </output>
				</split>
				<split pos="right">
					<feature>1 </feature>
					<threshold> 10.097287 </threshold>
					<split pos="left">
						<feature>4 </feature>
						<threshold> 3.9426136 </threshold>
						<split pos="left">
							<output>-0.3835301101207733 </output>
						</split>
						<split pos="right">
							<feature>2 </feature>
							<threshold> 7.5850706 </threshold>
							<split pos="left">
								<output>0.6449383497238159 </output>
							</split>
							<split pos="right">
								<output>-0.4774828553199768 </output>
							</split>
						</split>
					</split>
					<split pos="right">
						<feature>10 </feature>
						<threshold> 0.5251397 </threshold>
						<split pos="left">
							<feature>10 </feature>
							<threshold> 0.5246085 </threshold>
							<split pos="left">
								<feature>1 </feature>
								<threshold> 12.511856 </threshold>
								<split pos="left">
									<feature>6 </feature>
									<threshold> 10.636274 </threshold>
									<split pos="left">
										<output>0.5679815411567688 </output>
									</split>
									<split pos="right">
										<output>1.0525367259979248 </output>
									</split>
								</split>
								<split pos="right">
									<output>0.20124411582946777 </output>
								</split>
							</split>
							<split pos="right">
								<output>1.120228886604309 </output>
							</split>
						</split>
						<split pos="right">
							<output>-0.8807876706123352 </output>
						</split>
					</split>
				</split>
			</split>
		</split>
	</tree>
	<tree id="32" weight="0.1">
		<split>
			<feature>15 </feature>
			<threshold> 0.47407407 </threshold>
			<split pos="left">
				<output>-0.9063637256622314 </output>
			</split>
			<split pos="right">
				<feature>9 </feature>
				<threshold> 0.49552324 </threshold>
				<split pos="left">
					<output>-0.9104350209236145 </output>
				</split>
				<split pos="right">
					<feature>9 </feature>
					<threshold> 0.5369106 </threshold>
					<split pos="left">
						<output>1.0273231267929077 </output>
					</split>
					<split pos="right">
						<feature>9 </feature>
						<threshold> 0.7175098 </threshold>
						<split pos="left">
							<output>-0.718737781047821 </output>
						</split>
						<split pos="right">
							<feature>1 </feature>
							<threshold> 10.097287 </threshold>
							<split pos="left">
								<feature>4 </feature>
								<threshold> 3.9426136 </threshold>
								<split pos="left">
									<output>-0.3542390465736389 </output>
								</split>
								<split pos="right">
									<output>0.2756824791431427 </output>
								</split>
							</split>
							<split pos="right">
								<feature>6 </feature>
								<threshold> 7.6448183 </threshold>
								<split pos="left">
									<feature>15 </feature>
									<threshold> 0.98983246 </threshold>
									<split pos="left">
										<feature>4 </feature>
										<threshold> 26.26151 </threshold>
										<split pos="left">
											<output>0.060639314353466034 </output>
										</split>
										<split pos="right">
											<output>0.7686240673065186 </output>
										</split>
									</split>
									<split pos="right">
										<output>1.1043275594711304 </output>
									</split>
								</split>
								<split pos="right">
									<output>0.6081883907318115 </output>
								</split>
							</split>
						</split>
					</split>
				</split>
			</split>
		</split>
	</tree>
	<tree id="33" weight="0.1">
		<split>
			<feature>14 </feature>
			<threshold> 0.42321044 </threshold>
			<split pos="left">
				<feature>15 </feature>
				<threshold> 0.9922209 </threshold>
				<split pos="left">
					<feature>4 </feature>
					<threshold> 26.26151 </threshold>
					<split pos="left">
						<feature>4 </feature>
						<threshold> 10.7363405 </threshold>
						<split pos="left">
							<output>-0.27883049845695496 </output>
						</split>
						<split pos="right">
							<output>-0.9263824820518494 </output>
						</split>
					</split>
					<split pos="right">
						<output>0.49919673800468445 </output>
					</split>
				</split>
				<split pos="right">
					<output>0.734281063079834 </output>
				</split>
			</split>
			<split pos="right">
				<feature>9 </feature>
				<threshold> 0.9507838 </threshold>
				<split pos="left">
					<feature>10 </feature>
					<threshold> 0.5092379 </threshold>
					<split pos="left">
						<feature>7 </feature>
						<threshold> 0.99609834 </threshold>
						<split pos="left">
							<output>0.11343947052955627 </output>
						</split>
						<split pos="right">
							<feature>13 </feature>
							<threshold> 0.23602146 </threshold>
							<split pos="left">
								<output>0.5297730565071106 </output>
							</split>
							<split pos="right">
								<output>1.1792618036270142 </output>
							</split>
						</split>
					</split>
					<split pos="right">
						<output>-0.3727090656757355 </output>
					</split>
				</split>
				<split pos="right">
					<feature>9 </feature>
					<threshold> 0.9545463 </threshold>
					<split pos="left">
						<output>0.9742336273193359 </output>
					</split>
					<split pos="right">
						<output>0.48777225613594055 </output>
					</split>
				</split>
			</split>
		</split>
	</tree>
	<tree id="34" weight="0.1">
		<split>
			<feature>12 </feature>
			<threshold> 0.47617793 </threshold>
			<split pos="left">
				<output>-0.9738462567329407 </output>
			</split>
			<split pos="right">
				<feature>12 </feature>
				<threshold> 0.6456189 </threshold>
				<split pos="left">
					<output>0.6029312014579773 </output>
				</split>
				<split pos="right">
					<feature>7 </feature>
					<threshold> 0.96887434 </threshold>
					<split pos="left">
						<output>-0.5407439470291138 </output>
					</split>
					<split pos="right">
						<feature>11 </feature>
						<threshold> 0.5202186 </threshold>
						<split pos="left">
							<feature>12 </feature>
							<threshold> 0.7717984 </threshold>
							<split pos="left">
								<output>-1.1792864799499512 </output>
							</split>
							<split pos="right">
								<feature>13 </feature>
								<threshold> 0.1829274 </threshold>
								<split pos="left">
									<feature>12 </feature>
									<threshold> 0.79342914 </threshold>
									<split pos="left">
										<output>1.0327644348144531 </output>
									</split>
									<split pos="right">
										<feature>5 </feature>
										<threshold> 9.321156 </threshold>
										<split pos="left">
											<feature>6 </feature>
											<threshold> 23.266829 </threshold>
											<split pos="left">
												<output>-0.05464373901486397 </output>
											</split>
											<split pos="right">
												<output>0.6175606846809387 </output>
											</split>
										</split>
										<split pos="right">
											<output>-1.6068623065948486 </output>
										</split>
									</split>
								</split>
								<split pos="right">
									<output>0.6504173278808594 </output>
								</split>
							</split>
						</split>
						<split pos="right">
							<output>0.4943525195121765 </output>
						</split>
					</split>
				</split>
			</split>
		</split>
	</tree>
	<tree id="35" weight="0.1">
		<split>
			<feature>14 </feature>
			<threshold> 0.11054181 </threshold>
			<split pos="left">
				<output>-1.1463524103164673 </output>
			</split>
			<split pos="right">
				<feature>14 </feature>
				<threshold> 0.12203694 </threshold>
				<split pos="left">
					<output>1.0413124561309814 </output>
				</split>
				<split pos="right">
					<feature>9 </feature>
					<threshold> 0.9507838 </threshold>
					<split pos="left">
						<feature>10 </feature>
						<threshold> 0.5092379 </threshold>
						<split pos="left">
							<feature>10 </feature>
							<threshold> 0.50117373 </threshold>
							<split pos="left">
								<output>-0.3431277275085449 </output>
							</split>
							<split pos="right">
								<feature>9 </feature>
								<threshold> 0.8604842 </threshold>
								<split pos="left">
									<output>0.3437497019767761 </output>
								</split>
								<split pos="right">
									<output>0.9563391208648682 </output>
								</split>
							</split>
						</split>
						<split pos="right">
							<output>-0.373254656791687 </output>
						</split>
					</split>
					<split pos="right">
						<feature>8 </feature>
						<threshold> 0.9334674 </threshold>
						<split pos="left">
							<output>0.8899602293968201 </output>
						</split>
						<split pos="right">
							<feature>6 </feature>
							<threshold> 20.109198 </threshold>
							<split pos="left">
								<feature>6 </feature>
								<threshold> 11.965811 </threshold>
								<split pos="left">
									<output>0.2836325466632843 </output>
								</split>
								<split pos="right">
									<output>-0.7647891640663147 </output>
								</split>
							</split>
							<split pos="right">
								<output>1.078718900680542 </output>
							</split>
						</split>
					</split>
				</split>
			</split>
		</split>
	</tree>
	<tree id="36" weight="0.1">
		<split>
			<feature>14 </feature>
			<threshold> 0.42321044 </threshold>
			<split pos="left">
				<feature>15 </feature>
				<threshold> 0.9835914 </threshold>
				<split pos="left">
					<feature>4 </feature>
					<threshold> 26.26151 </threshold>
					<split pos="left">
						<output>-0.5487085580825806 </output>
					</split>
					<split pos="right">
						<output>0.505018949508667 </output>
					</split>
				</split>
				<split pos="right">
					<output>0.6750184297561646 </output>
				</split>
			</split>
			<split pos="right">
				<feature>4 </feature>
				<threshold> 9.665392 </threshold>
				<split pos="left">
					<feature>9 </feature>
					<threshold> 0.9507838 </threshold>
					<split pos="left">
						<feature>10 </feature>
						<threshold> 0.5092379 </threshold>
						<split pos="left">
							<feature>7 </feature>
							<threshold> 0.99609834 </threshold>
							<split pos="left">
								<output>0.06952602416276932 </output>
							</split>
							<split pos="right">
								<output>0.7125712633132935 </output>
							</split>
						</split>
						<split pos="right">
							<output>-0.5487719774246216 </output>
						</split>
					</split>
					<split pos="right">
						<feature>8 </feature>
						<threshold> 0.96045274 </threshold>
						<split pos="left">
							<feature>15 </feature>
							<threshold> 0.69264066 </threshold>
							<split pos="left">
								<output>1.0913434028625488 </output>
							</split>
							<split pos="right">
								<output>0.49630218744277954 </output>
							</split>
						</split>
						<split pos="right">
							<output>-0.20402340590953827 </output>
						</split>
					</split>
				</split>
				<split pos="right">
					<output>0.6140574216842651 </output>
				</split>
			</split>
		</split>
	</tree>
	<tree id="37" weight="0.1">
		<split>
			<feature>11 </feature>
			<threshold> 0.4982857 </threshold>
			<split pos="left">
				<output>-0.8059890270233154 </output>
			</split>
			<split pos="right">
				<feature>11 </feature>
				<threshold> 0.49885845 </threshold>
				<split pos="left">
					<output>1.0333623886108398 </output>
				</split>
				<split pos="right">
					<feature>7 </feature>
					<threshold> 0.4010594 </threshold>
					<split pos="left">
						<output>-0.9031133055686951 </output>
					</split>
					<split pos="right">
						<feature>7 </feature>
						<threshold> 0.5177337 </threshold>
						<split pos="left">
							<output>0.8872791528701782 </output>
						</split>
						<split pos="right">
							<feature>1 </feature>
							<threshold> 2.8535812 </threshold>
							<split pos="left">
								<output>-0.6925650835037231 </output>
							</split>
							<split pos="right">
								<feature>15 </feature>
								<threshold> 0.98406285 </threshold>
								<split pos="left">
									<feature>15 </feature>
									<threshold> 0.9558183 </threshold>
									<split pos="left">
										<feature>1 </feature>
										<threshold> 3.0730875 </threshold>
										<split pos="left">
											<output>1.1055346727371216 </output>
										</split>
										<split pos="right">
											<feature>6 </feature>
											<threshold> 16.619184 </threshold>
											<split pos="left">
												<output>0.028152968734502792 </output>
											</split>
											<split pos="right">
												<output>0.8716106414794922 </output>
											</split>
										</split>
									</split>
									<split pos="right">
										<output>-0.9772413969039917 </output>
									</split>
								</split>
								<split pos="right">
									<output>0.5455269813537598 </output>
								</split>
							</split>
						</split>
					</split>
				</split>
			</split>
		</split>
	</tree>
	<tree id="38" weight="0.1">
		<split>
			<feature>11 </feature>
			<threshold> 0.4982857 </threshold>
			<split pos="left">
				<output>-0.7693895697593689 </output>
			</split>
			<split pos="right">
				<feature>11 </feature>
				<threshold> 0.49885845 </threshold>
				<split pos="left">
					<output>1.028900146484375 </output>
				</split>
				<split pos="right">
					<feature>7 </feature>
					<threshold> 0.41272682 </threshold>
					<split pos="left">
						<output>-0.9101550579071045 </output>
					</split>
					<split pos="right">
						<feature>7 </feature>
						<threshold> 0.5177337 </threshold>
						<split pos="left">
							<output>0.8794323205947876 </output>
						</split>
						<split pos="right">
							<feature>9 </feature>
							<threshold> 0.9921711 </threshold>
							<split pos="left">
								<feature>9 </feature>
								<threshold> 0.46918586 </threshold>
								<split pos="left">
									<output>-1.1530890464782715 </output>
								</split>
								<split pos="right">
									<feature>8 </feature>
									<threshold> 0.5710927 </threshold>
									<split pos="left">
										<output>0.8928077816963196 </output>
									</split>
									<split pos="right">
										<feature>4 </feature>
										<threshold> 5.9897885 </threshold>
										<split pos="left">
											<feature>4 </feature>
											<threshold> 5.8964043 </threshold>
											<split pos="left">
												<output>0.002195135923102498 </output>
											</split>
											<split pos="right">
												<output>-8.330941200256348 </output>
											</split>
										</split>
										<split pos="right">
											<output>0.3212597370147705 </output>
										</split>
									</split>
								</split>
							</split>
							<split pos="right">
								<output>-1.1135307550430298 </output>
							</split>
						</split>
					</split>
				</split>
			</split>
		</split>
	</tree>
	<tree id="39" weight="0.1">
		<split>
			<feature>15 </feature>
			<threshold> 0.47407407 </threshold>
			<split pos="left">
				<output>-0.8100034594535828 </output>
			</split>
			<split pos="right">
				<feature>1 </feature>
				<threshold> 23.706642 </threshold>
				<split pos="left">
					<feature>4 </feature>
					<threshold> 26.269026 </threshold>
					<split pos="left">
						<feature>1 </feature>
						<threshold> 10.097287 </threshold>
						<split pos="left">
							<feature>10 </feature>
							<threshold> 0.49344456 </threshold>
							<split pos="left">
								<output>-0.9740743041038513 </output>
							</split>
							<split pos="right">
								<feature>10 </feature>
								<threshold> 0.5092379 </threshold>
								<split pos="left">
									<feature>12 </feature>
									<threshold> 0.9196086 </threshold>
									<split pos="left">
										<output>-0.2604594826698303 </output>
									</split>
									<split pos="right">
										<output>0.6347296833992004 </output>
									</split>
								</split>
								<split pos="right">
									<feature>4 </feature>
									<threshold> 7.4579353 </threshold>
									<split pos="left">
										<output>-0.5199236273765564 </output>
									</split>
									<split pos="right">
										<output>0.2883553206920624 </output>
									</split>
								</split>
							</split>
						</split>
						<split pos="right">
							<feature>6 </feature>
							<threshold> 7.6448183 </threshold>
							<split pos="left">
								<output>0.10996057093143463 </output>
							</split>
							<split pos="right">
								<output>0.5370940566062927 </output>
							</split>
						</split>
					</split>
					<split pos="right">
						<output>1.0647579431533813 </output>
					</split>
				</split>
				<split pos="right">
					<output>-0.8157570362091064 </output>
				</split>
			</split>
		</split>
	</tree>
	<tree id="40" weight="0.1">
		<split>
			<feature>14 </feature>
			<threshold> 0.2737728 </threshold>
			<split pos="left">
				<output>-0.42500433325767517 </output>
			</split>
			<split pos="right">
				<feature>9 </feature>
				<threshold> 0.9507838 </threshold>
				<split pos="left">
					<feature>6 </feature>
					<threshold> 11.467235 </threshold>
					<split pos="left">
						<feature>6 </feature>
						<threshold> 11.301043 </threshold>
						<split pos="left">
							<output>-0.25401070713996887 </output>
						</split>
						<split pos="right">
							<output>-2.876401662826538 </output>
						</split>
					</split>
					<split pos="right">
						<feature>6 </feature>
						<threshold> 11.633427 </threshold>
						<split pos="left">
							<output>1.0712777376174927 </output>
						</split>
						<split pos="right">
							<feature>9 </feature>
							<threshold> 0.93949634 </threshold>
							<split pos="left">
								<output>0.03780555725097656 </output>
							</split>
							<split pos="right">
								<output>1.1038013696670532 </output>
							</split>
						</split>
					</split>
				</split>
				<split pos="right">
					<feature>14 </feature>
					<threshold> 0.29906225 </threshold>
					<split pos="left">
						<output>0.881312370300293 </output>
					</split>
					<split pos="right">
						<feature>9 </feature>
						<threshold> 0.9545463 </threshold>
						<split pos="left">
							<output>0.8176590800285339 </output>
						</split>
						<split pos="right">
							<feature>6 </feature>
							<threshold> 20.773962 </threshold>
							<split pos="left">
								<output>0.20144908130168915 </output>
							</split>
							<split pos="right">
								<output>1.073706030845642 </output>
							</split>
						</split>
					</split>
				</split>
			</split>
		</split>
	</tree>
	<tree id="41" weight="0.1">
		<split>
			<feature>11 </feature>
			<threshold> 0.4982857 </threshold>
			<split pos="left">
				<output>-0.7398792505264282 </output>
			</split>
			<split pos="right">
				<feature>11 </feature>
				<threshold> 0.49885845 </threshold>
				<split pos="left">
					<output>1.023999571800232 </output>
				</split>
				<split pos="right">
					<feature>12 </feature>
					<threshold> 0.51943946 </threshold>
					<split pos="left">
						<output>-0.780106246471405 </output>
					</split>
					<split pos="right">
						<feature>12 </feature>
						<threshold> 0.6456189 </threshold>
						<split pos="left">
							<output>0.6682780385017395 </output>
						</split>
						<split pos="right">
							<feature>4 </feature>
							<threshold> 5.9897885 </threshold>
							<split pos="left">
								<feature>4 </feature>
								<threshold> 5.8964043 </threshold>
								<split pos="left">
									<feature>8 </feature>
									<threshold> 0.9720179 </threshold>
									<split pos="left">
										<feature>10 </feature>
										<threshold> 0.50581396 </threshold>
										<split pos="left">
											<output>0.3553495705127716 </output>
										</split>
										<split pos="right">
											<output>-0.18762873113155365 </output>
										</split>
									</split>
									<split pos="right">
										<output>-0.720454752445221 </output>
									</split>
								</split>
								<split pos="right">
									<output>-3.6350271701812744 </output>
								</split>
							</split>
							<split pos="right">
								<feature>4 </feature>
								<threshold> 7.7730484 </threshold>
								<split pos="left">
									<output>1.2435818910598755 </output>
								</split>
								<split pos="right">
									<output>0.10881441086530685 </output>
								</split>
							</split>
						</split>
					</split>
				</split>
			</split>
		</split>
	</tree>
	<tree id="42" weight="0.1">
		<split>
			<feature>14 </feature>
			<threshold> 0.2737728 </threshold>
			<split pos="left">
				<output>-0.41387104988098145 </output>
			</split>
			<split pos="right">
				<feature>9 </feature>
				<threshold> 0.9507838 </threshold>
				<split pos="left">
					<feature>6 </feature>
					<threshold> 10.968658 </threshold>
					<split pos="left">
						<feature>4 </feature>
						<threshold> 11.294171 </threshold>
						<split pos="left">
							<feature>4 </feature>
							<threshold> 10.616868 </threshold>
							<split pos="left">
								<output>-0.21499837934970856 </output>
							</split>
							<split pos="right">
								<output>0.969643771648407 </output>
							</split>
						</split>
						<split pos="right">
							<output>-1.216886281967163 </output>
						</split>
					</split>
					<split pos="right">
						<feature>9 </feature>
						<threshold> 0.93949634 </threshold>
						<split pos="left">
							<feature>1 </feature>
							<threshold> 7.4632125 </threshold>
							<split pos="left">
								<output>-0.4455466866493225 </output>
							</split>
							<split pos="right">
								<output>0.5167568325996399 </output>
							</split>
						</split>
						<split pos="right">
							<output>1.0814671516418457 </output>
						</split>
					</split>
				</split>
				<split pos="right">
					<feature>14 </feature>
					<threshold> 0.29906225 </threshold>
					<split pos="left">
						<output>0.8471432328224182 </output>
					</split>
					<split pos="right">
						<feature>12 </feature>
						<threshold> 0.86192656 </threshold>
						<split pos="left">
							<output>0.6598103046417236 </output>
						</split>
						<split pos="right">
							<output>-0.12044765800237656 </output>
						</split>
					</split>
				</split>
			</split>
		</split>
	</tree>
	<tree id="43" weight="0.1">
		<split>
			<feature>10 </feature>
			<threshold> 0.49644548 </threshold>
			<split pos="left">
				<output>-0.39203378558158875 </output>
			</split>
			<split pos="right">
				<feature>10 </feature>
				<threshold> 0.5092379 </threshold>
				<split pos="left">
					<feature>2 </feature>
					<threshold> 9.146702 </threshold>
					<split pos="left">
						<feature>2 </feature>
						<threshold> 8.477431 </threshold>
						<split pos="left">
							<feature>10 </feature>
							<threshold> 0.50350463 </threshold>
							<split pos="left">
								<output>0.9413979649543762 </output>
							</split>
							<split pos="right">
								<output>-0.06950079649686813 </output>
							</split>
						</split>
						<split pos="right">
							<output>0.9252817630767822 </output>
						</split>
					</split>
					<split pos="right">
						<output>-0.09321954101324081 </output>
					</split>
				</split>
				<split pos="right">
					<feature>9 </feature>
					<threshold> 0.9244464 </threshold>
					<split pos="left">
						<output>-0.32811370491981506 </output>
					</split>
					<split pos="right">
						<feature>9 </feature>
						<threshold> 0.9282089 </threshold>
						<split pos="left">
							<output>1.0129344463348389 </output>
						</split>
						<split pos="right">
							<feature>2 </feature>
							<threshold> 11.154513 </threshold>
							<split pos="left">
								<feature>15 </feature>
								<threshold> 0.9922209 </threshold>
								<split pos="left">
									<output>-0.3473505675792694 </output>
								</split>
								<split pos="right">
									<output>0.70525062084198 </output>
								</split>
							</split>
							<split pos="right">
								<output>0.6178790330886841 </output>
							</split>
						</split>
					</split>
				</split>
			</split>
		</split>
	</tree>
	<tree id="44" weight="0.1">
		<split>
			<feature>10 </feature>
			<threshold> 0.49763596 </threshold>
			<split pos="left">
				<output>-0.35822993516921997 </output>
			</split>
			<split pos="right">
				<feature>10 </feature>
				<threshold> 0.5092379 </threshold>
				<split pos="left">
					<feature>4 </feature>
					<threshold> 26.269026 </threshold>
					<split pos="left">
						<feature>2 </feature>
						<threshold> 9.146702 </threshold>
						<split pos="left">
							<feature>2 </feature>
							<threshold> 8.477431 </threshold>
							<split pos="left">
								<output>0.4276305139064789 </output>
							</split>
							<split pos="right">
								<output>0.9040852785110474 </output>
							</split>
						</split>
						<split pos="right">
							<output>-0.15879108011722565 </output>
						</split>
					</split>
					<split pos="right">
						<output>1.0547815561294556 </output>
					</split>
				</split>
				<split pos="right">
					<feature>9 </feature>
					<threshold> 0.9244464 </threshold>
					<split pos="left">
						<output>-0.29663288593292236 </output>
					</split>
					<split pos="right">
						<feature>9 </feature>
						<threshold> 0.9282089 </threshold>
						<split pos="left">
							<output>0.9929579496383667 </output>
						</split>
						<split pos="right">
							<feature>14 </feature>
							<threshold> 0.42321044 </threshold>
							<split pos="left">
								<output>-0.38121357560157776 </output>
							</split>
							<split pos="right">
								<feature>14 </feature>
								<threshold> 0.43470564 </threshold>
								<split pos="left">
									<output>1.5160237550735474 </output>
								</split>
								<split pos="right">
									<output>0.34241753816604614 </output>
								</split>
							</split>
						</split>
					</split>
				</split>
			</split>
		</split>
	</tree>
	<tree id="45" weight="0.1">
		<split>
			<feature>10 </feature>
			<threshold> 0.488568 </threshold>
			<split pos="left">
				<output>-0.4865809381008148 </output>
			</split>
			<split pos="right">
				<feature>7 </feature>
				<threshold> 0.41272682 </threshold>
				<split pos="left">
					<output>-0.8306015729904175 </output>
				</split>
				<split pos="right">
					<feature>7 </feature>
					<threshold> 0.47884226 </threshold>
					<split pos="left">
						<output>1.1970462799072266 </output>
					</split>
					<split pos="right">
						<feature>10 </feature>
						<threshold> 0.5092379 </threshold>
						<split pos="left">
							<output>0.28846675157546997 </output>
						</split>
						<split pos="right">
							<feature>8 </feature>
							<threshold> 0.18944281 </threshold>
							<split pos="left">
								<output>3.764418840408325 </output>
							</split>
							<split pos="right">
								<feature>6 </feature>
								<threshold> 25.593504 </threshold>
								<split pos="left">
									<feature>6 </feature>
									<threshold> 25.09493 </threshold>
									<split pos="left">
										<feature>4 </feature>
										<threshold> 12.536346 </threshold>
										<split pos="left">
											<feature>4 </feature>
											<threshold> 11.992788 </threshold>
											<split pos="left">
												<output>-0.02772318758070469 </output>
											</split>
											<split pos="right">
												<output>1.0866799354553223 </output>
											</split>
										</split>
										<split pos="right">
											<output>-0.5949515700340271 </output>
										</split>
									</split>
									<split pos="right">
										<output>1.062516450881958 </output>
									</split>
								</split>
								<split pos="right">
									<output>-1.909867763519287 </output>
								</split>
							</split>
						</split>
					</split>
				</split>
			</split>
		</split>
	</tree>
	<tree id="46" weight="0.1">
		<split>
			<feature>10 </feature>
			<threshold> 0.49763596 </threshold>
			<split pos="left">
				<feature>6 </feature>
				<threshold> 21.106344 </threshold>
				<split pos="left">
					<output>-0.539783775806427 </output>
				</split>
				<split pos="right">
					<output>0.5829547643661499 </output>
				</split>
			</split>
			<split pos="right">
				<feature>10 </feature>
				<threshold> 0.50350463 </threshold>
				<split pos="left">
					<output>0.472968190908432 </output>
				</split>
				<split pos="right">
					<feature>8 </feature>
					<threshold> 0.9180472 </threshold>
					<split pos="left">
						<output>-0.32082560658454895 </output>
					</split>
					<split pos="right">
						<feature>8 </feature>
						<threshold> 0.9565977 </threshold>
						<split pos="left">
							<feature>14 </feature>
							<threshold> 0.57494617 </threshold>
							<split pos="left">
								<output>-0.06266216188669205 </output>
							</split>
							<split pos="right">
								<feature>14 </feature>
								<threshold> 0.5864412 </threshold>
								<split pos="left">
									<output>0.9689890146255493 </output>
								</split>
								<split pos="right">
									<feature>10 </feature>
									<threshold> 0.50581396 </threshold>
									<split pos="left">
										<output>1.365684986114502 </output>
									</split>
									<split pos="right">
										<output>0.26853376626968384 </output>
									</split>
								</split>
							</split>
						</split>
						<split pos="right">
							<feature>13 </feature>
							<threshold> 0.017746147 </threshold>
							<split pos="left">
								<output>0.43442708253860474 </output>
							</split>
							<split pos="right">
								<output>-0.4741773009300232 </output>
							</split>
						</split>
					</split>
				</split>
			</split>
		</split>
	</tree>
	<tree id="47" weight="0.1">
		<split>
			<feature>1 </feature>
			<threshold> 2.8535812 </threshold>
			<split pos="left">
				<output>-0.6037206649780273 </output>
			</split>
			<split pos="right">
				<feature>15 </feature>
				<threshold> 0.98406285 </threshold>
				<split pos="left">
					<feature>15 </feature>
					<threshold> 0.94866234 </threshold>
					<split pos="left">
						<feature>15 </feature>
						<threshold> 0.94617134 </threshold>
						<split pos="left">
							<feature>6 </feature>
							<threshold> 19.444433 </threshold>
							<split pos="left">
								<feature>6 </feature>
								<threshold> 11.965811 </threshold>
								<split pos="left">
									<feature>4 </feature>
									<threshold> 31.433678 </threshold>
									<split pos="left">
										<feature>4 </feature>
										<threshold> 11.114512 </threshold>
										<split pos="left">
											<feature>6 </feature>
											<threshold> 11.799619 </threshold>
											<split pos="left">
												<output>0.12532170116901398 </output>
											</split>
											<split pos="right">
												<output>1.0556063652038574 </output>
											</split>
										</split>
										<split pos="right">
											<output>-0.8120753169059753 </output>
										</split>
									</split>
									<split pos="right">
										<output>1.0426688194274902 </output>
									</split>
								</split>
								<split pos="right">
									<output>-1.089780569076538 </output>
								</split>
							</split>
							<split pos="right">
								<output>0.8155118227005005 </output>
							</split>
						</split>
						<split pos="right">
							<output>0.7527340650558472 </output>
						</split>
					</split>
					<split pos="right">
						<output>-0.67906653881073 </output>
					</split>
				</split>
				<split pos="right">
					<output>0.4723871648311615 </output>
				</split>
			</split>
		</split>
	</tree>
	<tree id="48" weight="0.1">
		<split>
			<feature>1 </feature>
			<threshold> 10.097287 </threshold>
			<split pos="left">
				<feature>10 </feature>
				<threshold> 0.49344456 </threshold>
				<split pos="left">
					<output>-0.991676390171051 </output>
				</split>
				<split pos="right">
					<feature>1 </feature>
					<threshold> 9.438768 </threshold>
					<split pos="left">
						<feature>11 </feature>
						<threshold> 0.5196936 </threshold>
						<split pos="left">
							<output>0.45244091749191284 </output>
						</split>
						<split pos="right">
							<feature>8 </feature>
							<threshold> 0.97587293 </threshold>
							<split pos="left">
								<feature>8 </feature>
								<threshold> 0.93732244 </threshold>
								<split pos="left">
									<output>0.08967708796262741 </output>
								</split>
								<split pos="right">
									<output>-0.8993639945983887 </output>
								</split>
							</split>
							<split pos="right">
								<output>0.5915999412536621 </output>
							</split>
						</split>
					</split>
					<split pos="right">
						<output>-0.755147397518158 </output>
					</split>
				</split>
			</split>
			<split pos="right">
				<feature>15 </feature>
				<threshold> 0.9869653 </threshold>
				<split pos="left">
					<feature>15 </feature>
					<threshold> 0.9213732 </threshold>
					<split pos="left">
						<feature>15 </feature>
						<threshold> 0.9184845 </threshold>
						<split pos="left">
							<output>0.19977065920829773 </output>
						</split>
						<split pos="right">
							<output>1.2866827249526978 </output>
						</split>
					</split>
					<split pos="right">
						<output>-0.5470042824745178 </output>
					</split>
				</split>
				<split pos="right">
					<output>0.6749672293663025 </output>
				</split>
			</split>
		</split>
	</tree>
	<tree id="49" weight="0.1">
		<split>
			<feature>1 </feature>
			<threshold> 2.8535812 </threshold>
			<split pos="left">
				<output>-0.5493324398994446 </output>
			</split>
			<split pos="right">
				<feature>15 </feature>
				<threshold> 0.98406285 </threshold>
				<split pos="left">
					<feature>15 </feature>
					<threshold> 0.94866234 </threshold>
					<split pos="left">
						<feature>15 </feature>
						<threshold> 0.94617134 </threshold>
						<split pos="left">
							<feature>5 </feature>
							<threshold> 0.0 </threshold>
							<split pos="left">
								<feature>6 </feature>
								<threshold> 19.444433 </threshold>
								<split pos="left">
									<feature>6 </feature>
									<threshold> 11.965811 </threshold>
									<split pos="left">
										<feature>4 </feature>
										<threshold> 31.433678 </threshold>
										<split pos="left">
											<feature>14 </feature>
											<threshold> 0.4094162 </threshold>
											<split pos="left">
												<output>-0.4210580885410309 </output>
											</split>
											<split pos="right">
												<output>0.20488646626472473 </output>
											</split>
										</split>
										<split pos="right">
											<output>1.033267617225647 </output>
										</split>
									</split>
									<split pos="right">
										<output>-1.3717021942138672 </output>
									</split>
								</split>
								<split pos="right">
									<output>0.7802912592887878 </output>
								</split>
							</split>
							<split pos="right">
								<output>1.0051791667938232 </output>
							</split>
						</split>
						<split pos="right">
							<output>0.7184939980506897 </output>
						</split>
					</split>
					<split pos="right">
						<output>-0.6502382755279541 </output>
					</split>
				</split>
				<split pos="right">
					<output>0.44198504090309143 </output>
				</split>
			</split>
		</split>
	</tree>
	<tree id="50" weight="0.1">
		<split>
			<feature>12 </feature>
			<threshold> 0.51943946 </threshold>
			<split pos="left">
				<output>-0.8552340865135193 </output>
			</split>
			<split pos="right">
				<feature>12 </feature>
				<threshold> 0.6456189 </threshold>
				<split pos="left">
					<output>0.543211817741394 </output>
				</split>
				<split pos="right">
					<feature>4 </feature>
					<threshold> 5.9897885 </threshold>
					<split pos="left">
						<feature>4 </feature>
						<threshold> 5.8964043 </threshold>
						<split pos="left">
							<feature>15 </feature>
							<threshold> 0.69264066 </threshold>
							<split pos="left">
								<output>0.4064326584339142 </output>
							</split>
							<split pos="right">
								<feature>10 </feature>
								<threshold> 0.46202534 </threshold>
								<split pos="left">
									<output>-2.7828755378723145 </output>
								</split>
								<split pos="right">
									<feature>15 </feature>
									<threshold> 0.99822533 </threshold>
									<split pos="left">
										<output>-0.2507549822330475 </output>
									</split>
									<split pos="right">
										<output>0.43095141649246216 </output>
									</split>
								</split>
							</split>
						</split>
						<split pos="right">
							<output>-2.9154231548309326 </output>
						</split>
					</split>
					<split pos="right">
						<feature>4 </feature>
						<threshold> 6.161234 </threshold>
						<split pos="left">
							<output>2.7033798694610596 </output>
						</split>
						<split pos="right">
							<feature>11 </feature>
							<threshold> 0.5202186 </threshold>
							<split pos="left">
								<output>0.015592198818922043 </output>
							</split>
							<split pos="right">
								<output>0.701919436454773 </output>
							</split>
						</split>
					</split>
				</split>
			</split>
		</split>
	</tree>
	<tree id="51" weight="0.1">
		<split>
			<feature>7 </feature>
			<threshold> 0.41272682 </threshold>
			<split pos="left">
				<output>-0.8729237914085388 </output>
			</split>
			<split pos="right">
				<feature>1 </feature>
				<threshold> 10.097287 </threshold>
				<split pos="left">
					<feature>13 </feature>
					<threshold> 0.047242783 </threshold>
					<split pos="left">
						<feature>15 </feature>
						<threshold> 0.99822533 </threshold>
						<split pos="left">
							<output>-0.4198808968067169 </output>
						</split>
						<split pos="right">
							<output>0.5540522933006287 </output>
						</split>
					</split>
					<split pos="right">
						<feature>4 </feature>
						<threshold> 9.556992 </threshold>
						<split pos="left">
							<output>0.05909531190991402 </output>
						</split>
						<split pos="right">
							<output>0.8544797897338867 </output>
						</split>
					</split>
				</split>
				<split pos="right">
					<feature>6 </feature>
					<threshold> 36.56212 </threshold>
					<split pos="left">
						<feature>10 </feature>
						<threshold> 0.4400527 </threshold>
						<split pos="left">
							<output>1.0099046230316162 </output>
						</split>
						<split pos="right">
							<feature>15 </feature>
							<threshold> 0.9869653 </threshold>
							<split pos="left">
								<feature>6 </feature>
								<threshold> 8.475778 </threshold>
								<split pos="left">
									<output>0.02596123144030571 </output>
								</split>
								<split pos="right">
									<output>0.47327208518981934 </output>
								</split>
							</split>
							<split pos="right">
								<output>0.7641810774803162 </output>
							</split>
						</split>
					</split>
					<split pos="right">
						<output>-1.5479732751846313 </output>
					</split>
				</split>
			</split>
		</split>
	</tree>
	<tree id="52" weight="0.1">
		<split>
			<feature>12 </feature>
			<threshold> 0.47617793 </threshold>
			<split pos="left">
				<output>-0.9356518983840942 </output>
			</split>
			<split pos="right">
				<feature>9 </feature>
				<threshold> 0.9507838 </threshold>
				<split pos="left">
					<feature>6 </feature>
					<threshold> 26.756842 </threshold>
					<split pos="left">
						<feature>6 </feature>
						<threshold> 26.42446 </threshold>
						<split pos="left">
							<feature>6 </feature>
							<threshold> 25.593504 </threshold>
							<split pos="left">
								<feature>6 </feature>
								<threshold> 25.09493 </threshold>
								<split pos="left">
									<feature>15 </feature>
									<threshold> 0.99822533 </threshold>
									<split pos="left">
										<feature>10 </feature>
										<threshold> 0.4970414 </threshold>
										<split pos="left">
											<output>-0.5135846734046936 </output>
										</split>
										<split pos="right">
											<output>0.015597349032759666 </output>
										</split>
									</split>
									<split pos="right">
										<output>0.7156285047531128 </output>
									</split>
								</split>
								<split pos="right">
									<output>1.0346460342407227 </output>
								</split>
							</split>
							<split pos="right">
								<output>-3.470522403717041 </output>
							</split>
						</split>
						<split pos="right">
							<output>1.0639712810516357 </output>
						</split>
					</split>
					<split pos="right">
						<output>-1.2115130424499512 </output>
					</split>
				</split>
				<split pos="right">
					<feature>2 </feature>
					<threshold> 9.146702 </threshold>
					<split pos="left">
						<output>-0.1457955241203308 </output>
					</split>
					<split pos="right">
						<output>0.5592764019966125 </output>
					</split>
				</split>
			</split>
		</split>
	</tree>
	<tree id="53" weight="0.1">
		<split>
			<feature>8 </feature>
			<threshold> 0.99129313 </threshold>
			<split pos="left">
				<feature>9 </feature>
				<threshold> 0.9507838 </threshold>
				<split pos="left">
					<feature>12 </feature>
					<threshold> 0.91600347 </threshold>
					<split pos="left">
						<feature>8 </feature>
						<threshold> 0.87564164 </threshold>
						<split pos="left">
							<output>-0.026958413422107697 </output>
						</split>
						<split pos="right">
							<output>-0.6548521518707275 </output>
						</split>
					</split>
					<split pos="right">
						<feature>8 </feature>
						<threshold> 0.98358303 </threshold>
						<split pos="left">
							<feature>11 </feature>
							<threshold> 0.5196936 </threshold>
							<split pos="left">
								<output>0.4692409336566925 </output>
							</split>
							<split pos="right">
								<feature>6 </feature>
								<threshold> 26.756842 </threshold>
								<split pos="left">
									<output>-0.04351948946714401 </output>
								</split>
								<split pos="right">
									<output>-2.68769907951355 </output>
								</split>
							</split>
						</split>
						<split pos="right">
							<output>1.2454725503921509 </output>
						</split>
					</split>
				</split>
				<split pos="right">
					<feature>14 </feature>
					<threshold> 0.4209114 </threshold>
					<split pos="left">
						<output>-0.2749859094619751 </output>
					</split>
					<split pos="right">
						<feature>14 </feature>
						<threshold> 0.43010756 </threshold>
						<split pos="left">
							<output>1.2857129573822021 </output>
						</split>
						<split pos="right">
							<output>0.39212799072265625 </output>
						</split>
					</split>
				</split>
			</split>
			<split pos="right">
				<output>-1.1480356454849243 </output>
			</split>
		</split>
	</tree>
	<tree id="54" weight="0.1">
		<split>
			<feature>8 </feature>
			<threshold> 0.79083055 </threshold>
			<split pos="left">
				<output>-0.4137497842311859 </output>
			</split>
			<split pos="right">
				<feature>8 </feature>
				<threshold> 0.7946856 </threshold>
				<split pos="left">
					<output>1.6099716424942017 </output>
				</split>
				<split pos="right">
					<feature>4 </feature>
					<threshold> 5.9897885 </threshold>
					<split pos="left">
						<feature>4 </feature>
						<threshold> 4.9821606 </threshold>
						<split pos="left">
							<feature>4 </feature>
							<threshold> 3.9426136 </threshold>
							<split pos="left">
								<feature>1 </feature>
								<threshold> 10.097287 </threshold>
								<split pos="left">
									<output>-0.2940404415130615 </output>
								</split>
								<split pos="right">
									<output>0.20717406272888184 </output>
								</split>
							</split>
							<split pos="right">
